#pragma once

namespace Eloquent { namespace Assets { namespace Gz { namespace Html { static const struct { const char mime[32]; const uint16_t length; const uint8_t data[1329]; } FACE_DETECTION = {"text/html", 1329, {31, 139, 8, 0, 0, 0, 0, 0, 0, 19, 109, 82, 193, 74, 196, 48, 16, 189, 251, 21, 33, 103, 219, 40, 94, 68, 218, 197, 131, 174, 32, 8, 130, 122, 150, 49, 153, 221, 78, 73, 210, 146, 25, 218, 245, 239, 205, 182, 202, 150, 173, 57, 101, 152, 151, 55, 239, 189, 73, 213, 72, 240, 155, 11, 149, 79, 213, 32, 184, 249, 58, 149, 66, 226, 113, 179, 5, 139, 234, 1, 5, 173, 80, 23, 213, 155, 36, 132, 80, 153, 185, 121, 2, 7, 20, 80, 182, 129, 196, 40, 181, 254, 120, 223, 22, 183, 250, 188, 29, 33, 96, 173, 7, 194, 177, 239, 146, 104, 101, 187, 40, 24, 51, 124, 36, 39, 77, 237, 112, 32, 139, 197, 84, 92, 42, 138, 36, 4, 190, 96, 11, 30, 235, 235, 242, 106, 73, 199, 54, 81, 47, 138, 147, 173, 117, 35, 210, 243, 157, 49, 214, 197, 82, 128, 252, 72, 209, 89, 230, 210, 118, 65, 111, 42, 51, 67, 127, 29, 154, 147, 197, 234, 171, 115, 223, 11, 74, 71, 131, 178, 30, 152, 107, 157, 208, 131, 208, 128, 139, 137, 19, 132, 194, 126, 30, 105, 66, 219, 227, 94, 43, 240, 89, 252, 203, 243, 235, 227, 147, 226, 41, 23, 173, 204, 130, 210, 100, 206, 181, 104, 135, 59, 76, 107, 233, 45, 59, 244, 52, 164, 50, 162, 152, 216, 7, 3, 190, 167, 136, 45, 223, 223, 148, 135, 242, 144, 185, 88, 38, 96, 160, 35, 248, 220, 218, 42, 22, 179, 203, 139, 251, 116, 127, 139, 251, 231, 73, 101, 230, 8, 114, 42, 199, 63, 240, 3, 71, 78, 147, 197, 10, 2, 0, 0}}; } } } }