#pragma once

namespace Eloquent { namespace Assets { namespace Gz { namespace Js { static const struct { const char mime[32]; const uint16_t length; const uint8_t data[25781]; } MOTIONDEBUGGER = {"text/javascript", 25781, {31, 139, 8, 0, 0, 0, 0, 0, 0, 19, 229, 91, 9, 119, 219, 182, 150, 254, 43, 50, 79, 170, 33, 107, 152, 21, 37, 175, 82, 88, 53, 91, 19, 183, 77, 156, 151, 165, 237, 139, 70, 227, 67, 73, 144, 196, 134, 34, 85, 18, 178, 163, 88, 250, 239, 243, 93, 44, 36, 104, 43, 109, 222, 155, 78, 223, 118, 114, 28, 2, 32, 120, 113, 113, 247, 123, 1, 185, 174, 23, 126, 125, 227, 172, 10, 222, 40, 68, 30, 143, 133, 211, 155, 174, 210, 177, 136, 179, 180, 33, 220, 212, 187, 185, 138, 242, 70, 30, 58, 102, 208, 9, 67, 177, 94, 242, 108, 218, 120, 30, 45, 251, 41, 191, 166, 103, 247, 42, 139, 39, 141, 86, 47, 231, 98, 149, 227, 187, 208, 204, 118, 133, 119, 19, 79, 221, 116, 149, 36, 33, 62, 220, 108, 220, 52, 20, 236, 32, 64, 231, 91, 61, 197, 23, 217, 107, 44, 156, 206, 252, 113, 148, 36, 88, 209, 143, 211, 9, 255, 112, 49, 117, 157, 65, 26, 137, 248, 138, 55, 198, 217, 132, 15, 29, 207, 243, 12, 252, 30, 33, 149, 246, 0, 185, 194, 107, 207, 224, 37, 60, 49, 207, 179, 235, 6, 225, 246, 6, 67, 79, 242, 60, 203, 93, 231, 245, 106, 201, 243, 6, 255, 176, 204, 121, 81, 208, 238, 22, 171, 66, 52, 120, 44, 230, 24, 30, 241, 6, 225, 216, 200, 242, 70, 212, 40, 65, 122, 180, 130, 218, 218, 94, 24, 230, 114, 43, 185, 63, 143, 10, 108, 203, 224, 146, 251, 51, 46, 208, 239, 229, 126, 65, 13, 22, 123, 219, 146, 128, 177, 235, 221, 232, 121, 28, 175, 162, 124, 182, 90, 240, 84, 20, 44, 114, 197, 60, 46, 60, 127, 156, 165, 160, 250, 106, 44, 178, 220, 219, 234, 153, 177, 191, 204, 51, 145, 209, 110, 194, 139, 209, 47, 124, 44, 252, 113, 206, 35, 1, 8, 213, 27, 118, 99, 125, 218, 5, 147, 146, 21, 239, 198, 140, 167, 88, 32, 143, 70, 9, 239, 238, 5, 236, 58, 143, 133, 106, 183, 24, 166, 79, 227, 217, 74, 191, 107, 109, 183, 30, 203, 220, 152, 9, 111, 203, 136, 205, 21, 206, 132, 104, 202, 242, 10, 241, 112, 229, 122, 253, 87, 124, 154, 72, 76, 204, 170, 254, 8, 108, 114, 189, 110, 197, 105, 198, 89, 41, 46, 3, 162, 230, 16, 52, 89, 174, 138, 185, 31, 45, 151, 201, 218, 205, 25, 247, 36, 227, 226, 16, 172, 113, 75, 254, 19, 32, 61, 69, 96, 93, 207, 72, 81, 218, 108, 18, 134, 105, 181, 105, 143, 197, 91, 198, 245, 92, 90, 161, 162, 168, 181, 1, 41, 116, 26, 198, 45, 57, 124, 144, 231, 209, 218, 143, 11, 249, 180, 152, 152, 160, 189, 197, 223, 102, 115, 235, 3, 103, 5, 89, 156, 198, 41, 159, 84, 242, 245, 122, 189, 24, 101, 73, 179, 73, 8, 96, 112, 160, 250, 126, 44, 64, 120, 48, 99, 184, 217, 152, 55, 206, 55, 223, 152, 81, 103, 104, 214, 82, 56, 76, 243, 108, 81, 45, 90, 95, 218, 187, 217, 41, 192, 231, 41, 184, 12, 89, 140, 132, 224, 139, 165, 104, 136, 172, 81, 64, 152, 163, 73, 35, 205, 210, 3, 185, 16, 120, 219, 136, 193, 160, 40, 29, 115, 255, 191, 211, 243, 20, 2, 61, 129, 120, 99, 42, 36, 220, 76, 97, 242, 131, 136, 240, 104, 100, 82, 192, 10, 165, 12, 243, 8, 202, 22, 53, 238, 236, 200, 245, 26, 11, 46, 230, 217, 196, 119, 128, 177, 69, 234, 156, 184, 174, 8, 117, 87, 15, 185, 33, 81, 200, 255, 64, 141, 20, 159, 212, 14, 172, 199, 127, 71, 65, 196, 239, 169, 132, 134, 168, 120, 254, 50, 207, 128, 160, 32, 177, 116, 74, 184, 14, 187, 169, 96, 4, 248, 132, 147, 152, 18, 25, 42, 178, 168, 190, 145, 193, 204, 224, 9, 251, 240, 210, 128, 185, 152, 246, 119, 142, 238, 82, 171, 18, 146, 240, 47, 47, 37, 34, 151, 151, 33, 103, 98, 203, 110, 47, 28, 147, 216, 146, 138, 73, 165, 237, 221, 86, 2, 245, 14, 202, 29, 70, 100, 177, 192, 54, 174, 134, 178, 112, 135, 65, 234, 165, 225, 29, 173, 135, 18, 87, 70, 44, 243, 182, 60, 129, 223, 72, 195, 220, 232, 47, 96, 88, 58, 121, 7, 1, 35, 45, 160, 153, 235, 40, 209, 131, 63, 9, 215, 192, 99, 179, 217, 225, 98, 120, 169, 161, 188, 102, 138, 63, 33, 80, 143, 121, 14, 119, 49, 105, 88, 155, 128, 100, 147, 148, 167, 201, 186, 97, 216, 33, 151, 37, 185, 170, 116, 123, 7, 166, 18, 79, 181, 32, 121, 46, 107, 65, 16, 133, 231, 28, 26, 166, 87, 165, 77, 67, 117, 138, 244, 191, 4, 164, 150, 131, 11, 105, 44, 98, 168, 106, 1, 84, 14, 26, 5, 73, 57, 52, 200, 158, 65, 158, 206, 94, 86, 108, 149, 45, 32, 242, 193, 22, 87, 12, 5, 23, 111, 153, 161, 146, 54, 154, 55, 155, 205, 222, 29, 46, 105, 162, 237, 5, 68, 180, 187, 150, 187, 152, 71, 139, 218, 148, 29, 148, 135, 72, 126, 88, 155, 73, 173, 158, 200, 215, 70, 8, 31, 102, 89, 194, 35, 203, 42, 251, 82, 183, 32, 186, 210, 127, 223, 21, 25, 253, 1, 27, 12, 153, 107, 137, 226, 22, 254, 156, 65, 235, 198, 145, 24, 207, 43, 147, 13, 157, 170, 182, 31, 89, 166, 60, 250, 109, 53, 154, 253, 142, 26, 237, 82, 162, 205, 102, 231, 199, 196, 11, 242, 208, 150, 98, 141, 149, 232, 74, 245, 9, 127, 203, 41, 236, 114, 7, 183, 28, 1, 81, 124, 47, 221, 233, 143, 100, 124, 68, 235, 163, 5, 29, 17, 205, 166, 3, 135, 62, 226, 121, 197, 24, 225, 39, 60, 157, 137, 185, 119, 3, 255, 232, 138, 48, 85, 62, 53, 15, 91, 44, 11, 109, 242, 106, 217, 186, 41, 186, 25, 75, 187, 214, 27, 19, 184, 124, 29, 26, 88, 253, 155, 73, 150, 74, 19, 216, 213, 173, 128, 105, 131, 57, 200, 247, 247, 135, 91, 120, 221, 26, 41, 149, 50, 192, 0, 77, 187, 217, 118, 251, 185, 222, 74, 145, 128, 255, 185, 238, 74, 6, 28, 108, 21, 194, 222, 71, 33, 196, 189, 164, 138, 69, 145, 52, 76, 149, 240, 18, 227, 107, 180, 162, 175, 65, 99, 63, 229, 31, 68, 101, 80, 87, 160, 28, 209, 137, 76, 112, 157, 48, 17, 173, 19, 135, 146, 50, 182, 63, 135, 250, 172, 84, 92, 16, 2, 154, 2, 131, 190, 110, 145, 75, 141, 83, 32, 176, 38, 161, 136, 180, 173, 137, 183, 91, 75, 21, 166, 165, 241, 212, 145, 73, 33, 131, 102, 75, 48, 172, 96, 198, 68, 90, 169, 209, 153, 74, 89, 235, 209, 182, 240, 252, 34, 137, 199, 220, 61, 69, 80, 110, 246, 231, 92, 148, 150, 25, 50, 38, 108, 159, 0, 145, 67, 0, 111, 143, 248, 105, 180, 64, 96, 230, 32, 11, 144, 31, 192, 142, 191, 230, 234, 219, 126, 45, 212, 233, 58, 15, 140, 99, 208, 19, 191, 250, 31, 183, 223, 125, 27, 111, 206, 189, 84, 160, 117, 186, 9, 142, 55, 157, 182, 135, 230, 163, 36, 90, 44, 249, 196, 83, 16, 238, 125, 229, 11, 94, 80, 148, 218, 87, 123, 211, 233, 134, 69, 29, 53, 126, 163, 19, 13, 14, 237, 249, 186, 84, 20, 224, 204, 75, 81, 247, 122, 83, 72, 167, 162, 77, 11, 142, 144, 164, 86, 105, 31, 72, 150, 222, 231, 189, 116, 127, 223, 203, 7, 233, 16, 225, 91, 58, 52, 12, 207, 171, 149, 138, 146, 15, 123, 174, 40, 165, 87, 249, 170, 157, 138, 240, 40, 74, 211, 76, 72, 147, 15, 97, 29, 39, 81, 81, 52, 162, 162, 22, 212, 84, 208, 151, 10, 186, 133, 35, 33, 165, 113, 151, 184, 233, 0, 155, 75, 236, 252, 42, 222, 15, 237, 14, 156, 66, 192, 114, 223, 14, 112, 72, 48, 29, 169, 212, 78, 140, 13, 129, 40, 185, 111, 2, 25, 188, 251, 116, 232, 227, 102, 0, 253, 158, 175, 33, 214, 138, 236, 104, 220, 113, 232, 198, 153, 239, 145, 51, 39, 59, 102, 50, 190, 91, 41, 91, 21, 46, 139, 236, 101, 30, 47, 98, 202, 239, 134, 53, 223, 94, 230, 16, 70, 39, 25, 182, 227, 0, 173, 104, 149, 8, 149, 146, 213, 86, 203, 171, 84, 172, 183, 147, 1, 223, 124, 99, 173, 165, 44, 135, 113, 41, 141, 101, 57, 46, 73, 67, 6, 67, 171, 100, 165, 95, 33, 239, 43, 149, 233, 190, 144, 182, 216, 147, 190, 58, 99, 102, 6, 132, 191, 144, 123, 82, 161, 76, 236, 245, 227, 174, 250, 0, 109, 15, 25, 141, 180, 65, 25, 114, 151, 146, 205, 19, 147, 45, 153, 232, 166, 217, 92, 214, 178, 59, 104, 84, 42, 199, 48, 233, 239, 9, 74, 69, 181, 214, 218, 242, 125, 235, 93, 121, 188, 113, 93, 213, 46, 106, 47, 74, 187, 218, 223, 229, 76, 181, 237, 217, 238, 244, 180, 128, 249, 233, 229, 106, 86, 4, 148, 43, 199, 247, 76, 187, 162, 71, 223, 224, 214, 45, 23, 100, 235, 154, 131, 158, 147, 203, 35, 58, 143, 170, 242, 197, 194, 198, 197, 78, 91, 174, 42, 47, 88, 79, 33, 72, 106, 173, 121, 51, 233, 235, 124, 104, 227, 147, 8, 49, 202, 194, 122, 117, 93, 193, 222, 177, 71, 139, 252, 23, 245, 8, 30, 1, 67, 159, 67, 164, 186, 180, 77, 8, 54, 209, 200, 14, 132, 197, 238, 64, 216, 2, 120, 207, 218, 21, 133, 166, 122, 7, 208, 80, 42, 75, 104, 83, 177, 37, 29, 128, 29, 150, 90, 119, 185, 51, 98, 185, 70, 132, 148, 93, 247, 213, 163, 187, 107, 198, 44, 201, 70, 81, 242, 6, 65, 105, 191, 106, 118, 85, 147, 189, 182, 131, 13, 171, 98, 132, 189, 22, 42, 144, 21, 16, 67, 60, 253, 108, 73, 175, 10, 202, 88, 168, 123, 137, 192, 88, 240, 148, 231, 69, 232, 252, 196, 163, 247, 228, 56, 96, 145, 46, 101, 45, 73, 15, 24, 3, 175, 183, 73, 234, 50, 184, 193, 14, 187, 160, 85, 193, 243, 43, 8, 188, 138, 79, 234, 134, 72, 155, 24, 172, 82, 6, 214, 245, 21, 117, 137, 134, 107, 204, 46, 17, 247, 93, 40, 128, 136, 208, 125, 13, 27, 19, 108, 188, 61, 102, 71, 10, 54, 176, 9, 79, 56, 85, 101, 160, 171, 254, 165, 254, 56, 247, 87, 105, 9, 7, 145, 252, 150, 41, 188, 237, 165, 238, 32, 175, 115, 54, 86, 199, 93, 39, 207, 228, 188, 36, 178, 102, 5, 56, 180, 42, 17, 234, 67, 146, 106, 111, 67, 149, 162, 20, 241, 71, 94, 110, 173, 10, 187, 53, 145, 114, 6, 115, 20, 142, 201, 231, 81, 104, 66, 238, 38, 246, 11, 4, 56, 123, 176, 246, 177, 15, 140, 60, 25, 224, 244, 212, 244, 85, 152, 169, 32, 31, 217, 55, 252, 119, 30, 115, 69, 201, 149, 47, 144, 236, 113, 193, 86, 32, 129, 50, 248, 46, 217, 109, 139, 70, 51, 107, 26, 69, 181, 101, 70, 149, 111, 54, 185, 187, 2, 133, 202, 248, 63, 246, 37, 201, 202, 72, 200, 159, 66, 103, 145, 37, 108, 183, 67, 50, 104, 192, 238, 181, 89, 253, 119, 37, 167, 50, 2, 191, 40, 209, 16, 148, 161, 242, 116, 242, 104, 30, 39, 19, 215, 206, 153, 63, 24, 91, 44, 124, 120, 115, 152, 214, 135, 28, 244, 224, 46, 198, 148, 27, 179, 230, 62, 81, 6, 97, 25, 33, 255, 19, 47, 178, 9, 197, 232, 86, 15, 225, 220, 34, 187, 226, 106, 13, 219, 58, 189, 183, 116, 118, 146, 141, 101, 20, 164, 109, 206, 147, 132, 83, 175, 54, 253, 193, 167, 167, 191, 65, 32, 74, 75, 213, 230, 191, 172, 236, 217, 3, 215, 105, 216, 1, 197, 27, 179, 59, 29, 123, 246, 133, 70, 242, 129, 0, 37, 71, 43, 170, 155, 120, 93, 153, 1, 217, 35, 123, 58, 244, 43, 106, 195, 204, 174, 19, 62, 87, 132, 229, 161, 227, 236, 67, 181, 253, 73, 36, 34, 146, 72, 202, 74, 100, 7, 89, 186, 180, 200, 231, 61, 93, 37, 174, 152, 242, 138, 54, 120, 30, 90, 86, 237, 145, 74, 116, 247, 206, 173, 32, 74, 251, 111, 83, 40, 212, 89, 115, 35, 91, 137, 34, 158, 80, 85, 120, 177, 132, 140, 166, 162, 76, 184, 63, 70, 186, 72, 164, 137, 113, 46, 215, 127, 17, 34, 243, 124, 72, 255, 61, 166, 255, 126, 162, 255, 190, 13, 225, 71, 23, 200, 208, 65, 141, 34, 75, 160, 172, 30, 123, 75, 233, 65, 137, 208, 175, 64, 232, 45, 242, 177, 183, 20, 56, 125, 235, 139, 57, 79, 221, 239, 60, 107, 255, 31, 105, 15, 143, 101, 129, 147, 152, 65, 43, 61, 13, 181, 217, 101, 207, 66, 75, 4, 191, 83, 123, 35, 169, 127, 102, 82, 138, 243, 222, 36, 187, 49, 186, 215, 123, 118, 255, 133, 137, 241, 76, 253, 230, 197, 224, 217, 176, 247, 108, 127, 159, 189, 2, 59, 216, 15, 46, 247, 239, 221, 179, 181, 69, 145, 201, 124, 134, 88, 22, 75, 146, 219, 7, 184, 87, 202, 143, 177, 250, 203, 222, 195, 114, 137, 135, 254, 50, 91, 186, 158, 91, 11, 134, 17, 104, 62, 174, 2, 205, 48, 48, 97, 216, 99, 138, 52, 159, 202, 170, 119, 78, 9, 234, 83, 63, 154, 76, 208, 100, 48, 153, 222, 246, 113, 185, 198, 246, 26, 98, 207, 221, 23, 181, 64, 187, 247, 83, 185, 232, 79, 229, 162, 68, 104, 246, 212, 31, 39, 60, 2, 12, 246, 74, 26, 202, 146, 90, 63, 88, 103, 6, 144, 39, 184, 223, 60, 154, 145, 6, 144, 230, 173, 150, 19, 242, 211, 30, 131, 107, 246, 71, 82, 81, 47, 213, 152, 74, 120, 40, 208, 159, 196, 8, 143, 122, 250, 25, 14, 14, 130, 33, 171, 128, 144, 80, 155, 182, 79, 49, 215, 88, 124, 144, 254, 192, 143, 166, 136, 115, 52, 176, 210, 229, 127, 4, 102, 4, 247, 123, 195, 217, 138, 171, 127, 209, 134, 133, 32, 198, 16, 250, 239, 45, 127, 128, 17, 112, 205, 51, 94, 216, 29, 12, 41, 216, 1, 239, 220, 129, 3, 33, 206, 174, 167, 216, 92, 1, 141, 230, 169, 195, 212, 200, 50, 90, 19, 78, 57, 255, 117, 133, 92, 135, 70, 139, 117, 58, 166, 231, 74, 100, 83, 24, 129, 66, 183, 151, 73, 180, 70, 115, 60, 231, 227, 247, 240, 214, 104, 101, 248, 44, 75, 232, 189, 137, 146, 101, 139, 28, 141, 51, 137, 11, 138, 10, 105, 30, 246, 180, 72, 51, 153, 149, 99, 139, 24, 152, 199, 147, 137, 68, 0, 110, 63, 167, 143, 226, 98, 1, 147, 202, 156, 36, 203, 232, 177, 0, 168, 120, 153, 112, 217, 20, 18, 70, 154, 45, 178, 201, 74, 14, 213, 64, 33, 38, 37, 64, 132, 91, 17, 167, 9, 0, 162, 71, 181, 105, 170, 188, 201, 230, 175, 171, 56, 151, 32, 114, 14, 151, 84, 200, 102, 193, 169, 84, 132, 230, 208, 243, 42, 194, 254, 104, 57, 115, 166, 60, 149, 128, 240, 247, 180, 64, 196, 22, 47, 145, 140, 198, 53, 198, 33, 163, 131, 118, 103, 82, 217, 75, 38, 86, 238, 175, 52, 171, 242, 4, 42, 45, 79, 154, 132, 215, 207, 141, 38, 119, 179, 82, 167, 17, 189, 103, 191, 5, 69, 70, 149, 152, 244, 56, 204, 33, 144, 177, 159, 165, 151, 19, 48, 47, 207, 214, 30, 179, 209, 172, 218, 62, 249, 30, 102, 207, 180, 246, 19, 202, 35, 141, 152, 68, 18, 27, 176, 76, 205, 207, 210, 136, 75, 82, 176, 21, 139, 20, 109, 198, 97, 89, 104, 213, 58, 246, 245, 137, 21, 25, 148, 47, 7, 39, 195, 190, 221, 233, 74, 141, 152, 194, 2, 145, 226, 73, 173, 73, 36, 129, 195, 27, 131, 72, 87, 34, 2, 52, 186, 160, 35, 130, 240, 101, 209, 93, 49, 69, 224, 238, 156, 33, 155, 189, 4, 59, 163, 164, 27, 179, 81, 134, 184, 177, 139, 120, 154, 97, 71, 11, 116, 4, 125, 82, 237, 206, 244, 226, 2, 82, 154, 130, 217, 52, 80, 211, 91, 26, 176, 57, 72, 125, 146, 104, 248, 185, 174, 246, 27, 176, 125, 122, 4, 230, 103, 218, 159, 2, 87, 51, 128, 217, 160, 63, 57, 134, 81, 52, 126, 95, 72, 76, 164, 222, 119, 199, 172, 120, 31, 47, 47, 21, 130, 148, 13, 103, 153, 232, 114, 29, 137, 108, 54, 18, 8, 141, 109, 123, 81, 179, 25, 185, 137, 236, 40, 114, 20, 108, 25, 170, 194, 104, 34, 121, 145, 247, 229, 57, 135, 47, 41, 177, 217, 220, 108, 173, 58, 166, 117, 230, 181, 231, 222, 102, 200, 253, 176, 141, 96, 237, 246, 232, 65, 187, 191, 99, 98, 95, 113, 174, 91, 177, 170, 61, 236, 166, 198, 147, 73, 68, 32, 72, 10, 163, 1, 31, 50, 211, 8, 41, 30, 116, 247, 18, 191, 218, 110, 179, 153, 248, 178, 129, 215, 118, 155, 140, 246, 178, 217, 172, 199, 204, 82, 19, 136, 253, 202, 94, 14, 90, 248, 4, 70, 92, 171, 0, 131, 27, 100, 213, 91, 127, 26, 35, 35, 111, 121, 246, 216, 128, 127, 213, 9, 54, 173, 225, 38, 12, 238, 223, 231, 95, 116, 130, 173, 4, 140, 136, 16, 170, 65, 220, 76, 42, 171, 189, 36, 103, 58, 195, 38, 234, 166, 27, 83, 74, 29, 216, 219, 203, 232, 64, 69, 110, 207, 99, 134, 97, 234, 212, 192, 159, 175, 39, 84, 65, 244, 110, 246, 90, 146, 83, 147, 208, 69, 94, 97, 162, 80, 171, 220, 84, 248, 99, 10, 194, 40, 82, 42, 96, 91, 18, 75, 25, 171, 182, 159, 184, 19, 136, 75, 169, 225, 79, 244, 121, 198, 39, 102, 143, 225, 186, 56, 76, 6, 228, 186, 217, 132, 245, 39, 10, 148, 190, 137, 217, 84, 37, 85, 85, 82, 161, 76, 23, 91, 89, 90, 206, 162, 91, 54, 171, 183, 106, 54, 87, 254, 2, 162, 4, 254, 100, 155, 205, 71, 215, 189, 147, 25, 228, 138, 69, 70, 201, 124, 216, 105, 164, 163, 196, 14, 192, 113, 175, 233, 88, 76, 189, 214, 122, 215, 151, 37, 175, 218, 144, 103, 159, 197, 66, 108, 169, 112, 210, 157, 145, 76, 212, 64, 195, 242, 144, 73, 139, 108, 23, 40, 165, 95, 19, 153, 251, 81, 58, 158, 103, 57, 26, 240, 73, 34, 91, 232, 0, 214, 99, 80, 50, 68, 58, 219, 87, 238, 212, 219, 238, 72, 97, 159, 189, 121, 254, 131, 158, 219, 108, 90, 29, 201, 200, 191, 126, 34, 155, 180, 146, 201, 29, 201, 224, 61, 189, 181, 29, 9, 213, 143, 234, 179, 64, 103, 122, 102, 102, 56, 47, 51, 178, 123, 64, 110, 103, 22, 73, 97, 232, 181, 91, 29, 61, 205, 123, 85, 94, 41, 77, 143, 177, 54, 3, 49, 132, 65, 218, 53, 76, 230, 187, 76, 227, 148, 46, 241, 90, 30, 105, 234, 202, 198, 1, 33, 124, 57, 8, 40, 218, 105, 54, 83, 191, 88, 202, 146, 172, 0, 246, 85, 2, 121, 15, 161, 248, 93, 124, 41, 14, 148, 203, 227, 109, 179, 185, 71, 181, 1, 138, 191, 53, 74, 149, 73, 32, 189, 171, 102, 186, 38, 53, 191, 53, 39, 176, 114, 173, 146, 9, 239, 44, 127, 247, 238, 223, 168, 126, 244, 174, 150, 66, 9, 241, 175, 95, 121, 125, 247, 167, 86, 94, 223, 253, 147, 85, 94, 223, 125, 86, 229, 85, 215, 127, 202, 194, 171, 248, 255, 59, 156, 215, 75, 89, 23, 83, 68, 117, 60, 111, 217, 130, 255, 188, 243, 221, 223, 188, 154, 144, 137, 219, 119, 19, 104, 228, 31, 119, 57, 225, 221, 63, 205, 229, 132, 92, 124, 226, 150, 128, 124, 241, 231, 222, 87, 168, 238, 186, 8, 203, 98, 103, 191, 163, 78, 127, 244, 33, 125, 86, 175, 155, 197, 54, 46, 159, 121, 245, 107, 44, 254, 177, 119, 191, 34, 241, 175, 122, 249, 107, 85, 55, 165, 159, 73, 111, 113, 155, 214, 85, 225, 94, 121, 46, 209, 167, 231, 206, 3, 137, 191, 241, 146, 133, 98, 69, 106, 149, 188, 41, 123, 166, 218, 192, 152, 124, 242, 148, 146, 60, 50, 124, 152, 26, 135, 174, 117, 9, 192, 147, 231, 253, 140, 20, 73, 153, 4, 37, 129, 110, 42, 235, 162, 122, 39, 61, 0, 9, 148, 141, 145, 149, 174, 61, 119, 76, 213, 239, 216, 92, 99, 85, 21, 116, 10, 199, 34, 21, 1, 230, 202, 144, 82, 108, 173, 162, 10, 105, 43, 8, 76, 203, 235, 85, 102, 114, 74, 184, 101, 84, 27, 213, 133, 112, 141, 226, 222, 216, 136, 157, 185, 54, 0, 208, 171, 176, 186, 67, 160, 227, 8, 119, 69, 88, 174, 12, 193, 237, 155, 5, 83, 109, 21, 178, 173, 9, 166, 163, 173, 202, 214, 148, 28, 202, 198, 223, 33, 137, 50, 184, 134, 69, 91, 229, 127, 242, 229, 14, 91, 28, 245, 6, 62, 231, 134, 196, 88, 252, 27, 95, 145, 208, 155, 187, 123, 71, 66, 191, 248, 51, 46, 73, 76, 171, 72, 135, 165, 85, 225, 138, 141, 217, 148, 37, 172, 96, 75, 54, 97, 107, 182, 96, 87, 108, 198, 174, 217, 133, 185, 148, 51, 190, 125, 36, 54, 103, 247, 122, 60, 124, 239, 58, 147, 248, 10, 209, 94, 90, 53, 243, 170, 153, 81, 51, 94, 80, 56, 184, 10, 95, 66, 15, 34, 26, 24, 71, 144, 211, 2, 99, 99, 57, 230, 78, 105, 112, 233, 64, 45, 169, 110, 244, 136, 202, 71, 72, 118, 157, 87, 79, 31, 210, 189, 119, 30, 45, 28, 150, 200, 153, 69, 5, 121, 89, 53, 39, 53, 152, 107, 5, 115, 177, 27, 230, 67, 100, 129, 179, 156, 82, 170, 198, 34, 155, 240, 4, 105, 155, 156, 63, 171, 192, 93, 235, 47, 217, 69, 248, 192, 21, 131, 67, 100, 93, 243, 48, 243, 139, 124, 204, 238, 133, 49, 200, 122, 52, 100, 35, 36, 151, 163, 240, 19, 199, 69, 78, 132, 101, 217, 200, 159, 231, 124, 26, 222, 99, 100, 75, 84, 167, 217, 124, 35, 35, 228, 124, 236, 176, 216, 99, 178, 19, 201, 146, 240, 243, 239, 94, 62, 121, 10, 87, 78, 153, 138, 217, 179, 158, 112, 29, 79, 196, 220, 97, 98, 208, 25, 234, 145, 57, 143, 103, 115, 65, 67, 109, 57, 20, 49, 71, 94, 93, 161, 34, 244, 168, 200, 146, 149, 224, 208, 228, 229, 65, 171, 145, 240, 169, 56, 104, 57, 122, 210, 45, 72, 209, 93, 72, 211, 29, 144, 70, 153, 16, 217, 162, 4, 214, 88, 30, 180, 27, 163, 217, 193, 12, 34, 119, 16, 180, 90, 13, 34, 175, 234, 157, 182, 212, 82, 121, 5, 101, 241, 203, 146, 207, 16, 64, 37, 242, 199, 2, 242, 109, 106, 189, 157, 116, 17, 38, 126, 56, 8, 228, 139, 201, 29, 12, 39, 119, 49, 92, 252, 33, 24, 46, 43, 40, 163, 74, 32, 106, 104, 22, 159, 66, 147, 87, 47, 104, 180, 33, 95, 141, 179, 164, 97, 166, 193, 46, 203, 137, 179, 26, 132, 197, 26, 88, 45, 15, 14, 63, 141, 153, 234, 37, 208, 149, 45, 91, 84, 218, 22, 179, 185, 119, 243, 1, 15, 142, 6, 251, 69, 86, 53, 241, 160, 159, 1, 224, 65, 213, 44, 249, 88, 169, 71, 228, 129, 84, 65, 48, 116, 35, 213, 31, 171, 199, 84, 125, 153, 168, 71, 65, 15, 104, 58, 61, 160, 238, 242, 147, 246, 144, 10, 110, 212, 95, 171, 199, 194, 99, 180, 234, 21, 173, 74, 141, 153, 90, 30, 70, 129, 30, 176, 12, 64, 115, 185, 243, 144, 31, 193, 7, 103, 129, 55, 104, 13, 123, 167, 205, 84, 11, 125, 141, 181, 135, 229, 112, 157, 191, 122, 250, 109, 89, 61, 44, 135, 119, 78, 191, 45, 56, 135, 229, 112, 125, 122, 112, 76, 47, 158, 187, 23, 76, 106, 245, 150, 197, 221, 57, 203, 240, 55, 169, 182, 145, 202, 187, 155, 79, 168, 36, 164, 232, 168, 142, 235, 20, 129, 84, 91, 190, 191, 210, 207, 25, 149, 129, 100, 157, 30, 198, 165, 21, 180, 59, 135, 71, 199, 39, 167, 103, 209, 104, 140, 8, 105, 54, 143, 127, 121, 159, 44, 210, 108, 249, 107, 94, 136, 213, 245, 135, 245, 199, 7, 15, 31, 61, 126, 242, 237, 211, 103, 231, 223, 125, 255, 195, 243, 23, 23, 47, 255, 242, 234, 245, 155, 183, 63, 254, 244, 243, 95, 223, 249, 172, 103, 253, 188, 167, 176, 242, 209, 59, 103, 9, 193, 206, 179, 132, 192, 62, 75, 8, 134, 93, 8, 24, 172, 114, 34, 172, 147, 20, 227, 14, 16, 140, 87, 126, 227, 24, 54, 146, 106, 150, 214, 33, 138, 245, 19, 147, 180, 25, 220, 191, 127, 116, 144, 247, 7, 237, 163, 35, 70, 127, 45, 198, 135, 221, 65, 139, 201, 127, 84, 144, 244, 167, 208, 27, 219, 221, 47, 69, 237, 23, 39, 182, 139, 9, 111, 174, 226, 60, 158, 196, 69, 119, 48, 56, 62, 101, 1, 59, 61, 28, 178, 193, 241, 25, 59, 102, 103, 45, 180, 78, 90, 44, 104, 179, 179, 35, 106, 6, 44, 192, 140, 86, 160, 218, 237, 67, 180, 143, 169, 221, 102, 237, 51, 22, 4, 129, 106, 119, 48, 30, 232, 249, 29, 26, 63, 83, 237, 67, 140, 183, 59, 10, 228, 33, 198, 219, 199, 106, 161, 35, 26, 167, 57, 199, 39, 236, 8, 227, 29, 130, 115, 124, 204, 142, 49, 222, 161, 249, 104, 16, 102, 29, 130, 121, 220, 102, 39, 29, 180, 79, 168, 221, 98, 39, 39, 104, 159, 162, 125, 116, 202, 78, 105, 156, 224, 28, 29, 179, 83, 140, 31, 18, 250, 0, 126, 22, 152, 54, 237, 3, 109, 130, 127, 212, 98, 103, 103, 186, 125, 72, 155, 234, 152, 206, 49, 58, 244, 117, 155, 58, 71, 180, 45, 211, 233, 208, 190, 76, 167, 77, 27, 51, 29, 162, 81, 91, 119, 58, 114, 107, 166, 67, 248, 181, 76, 7, 163, 68, 28, 185, 14, 53, 232, 173, 234, 200, 213, 53, 154, 29, 106, 28, 91, 29, 224, 170, 54, 70, 144, 142, 58, 122, 199, 178, 67, 224, 143, 245, 180, 227, 64, 211, 168, 3, 84, 142, 143, 52, 241, 58, 104, 72, 234, 201, 117, 208, 0, 135, 20, 185, 105, 11, 39, 199, 154, 15, 135, 128, 116, 114, 166, 25, 68, 107, 16, 53, 219, 146, 106, 24, 61, 197, 180, 224, 68, 177, 37, 56, 195, 194, 129, 228, 35, 166, 156, 225, 175, 69, 208, 78, 177, 250, 25, 209, 142, 196, 231, 20, 223, 16, 121, 91, 4, 128, 196, 190, 13, 250, 158, 117, 100, 231, 12, 29, 48, 136, 182, 64, 20, 108, 183, 192, 57, 162, 14, 144, 98, 109, 16, 251, 132, 208, 193, 126, 209, 233, 176, 19, 9, 224, 144, 58, 71, 236, 88, 2, 56, 162, 14, 36, 69, 78, 131, 40, 181, 1, 228, 72, 78, 3, 10, 237, 54, 228, 76, 78, 59, 163, 78, 135, 73, 234, 180, 91, 144, 80, 136, 107, 135, 166, 181, 3, 234, 64, 115, 228, 27, 76, 105, 183, 79, 32, 203, 212, 233, 80, 231, 20, 58, 69, 157, 67, 234, 156, 233, 111, 64, 145, 54, 104, 12, 104, 195, 45, 66, 159, 22, 2, 159, 22, 34, 158, 22, 66, 157, 22, 2, 156, 189, 0, 17, 137, 227, 176, 17, 254, 51, 135, 215, 234, 174, 152, 159, 100, 99, 121, 209, 194, 207, 242, 120, 22, 195, 215, 118, 79, 131, 175, 164, 23, 134, 79, 90, 124, 214, 252, 182, 227, 33, 111, 89, 38, 17, 226, 106, 103, 46, 4, 29, 55, 95, 35, 178, 170, 140, 211, 213, 255, 217, 54, 145, 29, 73, 195, 231, 145, 152, 195, 244, 124, 112, 91, 172, 102, 166, 170, 250, 143, 175, 173, 5, 66, 217, 242, 148, 158, 15, 235, 215, 0, 173, 36, 21, 54, 237, 124, 17, 205, 248, 227, 72, 68, 228, 238, 200, 211, 209, 49, 207, 140, 171, 8, 240, 3, 130, 179, 54, 213, 74, 98, 117, 195, 225, 21, 229, 100, 100, 199, 132, 47, 61, 8, 158, 202, 101, 208, 57, 240, 114, 37, 42, 96, 41, 25, 59, 26, 85, 87, 236, 30, 209, 253, 150, 2, 137, 207, 197, 146, 114, 31, 96, 18, 58, 227, 108, 185, 70, 92, 231, 79, 242, 232, 90, 126, 8, 212, 8, 118, 170, 97, 167, 26, 182, 28, 36, 191, 109, 18, 189, 177, 93, 113, 84, 247, 165, 70, 175, 179, 241, 123, 46, 232, 28, 41, 75, 23, 188, 40, 0, 174, 246, 195, 77, 119, 190, 31, 170, 171, 60, 230, 90, 225, 215, 29, 126, 136, 76, 129, 4, 195, 220, 183, 152, 87, 63, 215, 188, 145, 113, 185, 53, 176, 117, 24, 223, 15, 100, 49, 111, 207, 229, 247, 91, 155, 77, 126, 191, 229, 169, 235, 240, 170, 180, 55, 247, 139, 213, 72, 229, 105, 116, 254, 117, 192, 247, 219, 150, 96, 12, 24, 196, 98, 96, 139, 10, 27, 98, 100, 104, 143, 220, 208, 156, 155, 218, 28, 44, 139, 165, 137, 43, 223, 189, 190, 120, 65, 247, 179, 10, 238, 102, 200, 180, 145, 146, 101, 9, 135, 60, 206, 92, 135, 104, 48, 205, 17, 12, 203, 48, 57, 117, 143, 161, 3, 177, 162, 34, 117, 79, 160, 14, 113, 201, 168, 212, 61, 131, 90, 72, 81, 146, 97, 156, 27, 240, 206, 87, 110, 176, 31, 251, 35, 158, 142, 231, 139, 40, 127, 79, 213, 206, 212, 13, 72, 117, 192, 30, 46, 228, 197, 6, 251, 88, 208, 72, 51, 45, 252, 54, 78, 197, 169, 206, 224, 116, 129, 68, 158, 250, 64, 116, 28, 229, 40, 175, 140, 199, 243, 122, 51, 119, 69, 101, 100, 23, 139, 149, 113, 36, 165, 53, 49, 38, 22, 239, 225, 238, 118, 67, 28, 223, 130, 88, 136, 18, 36, 155, 33, 206, 153, 18, 190, 167, 208, 248, 169, 57, 70, 116, 235, 129, 86, 117, 10, 195, 191, 56, 12, 195, 22, 121, 97, 37, 6, 95, 185, 83, 211, 58, 4, 52, 173, 230, 16, 162, 98, 214, 108, 218, 61, 151, 124, 114, 133, 181, 68, 204, 171, 74, 29, 134, 33, 92, 85, 22, 192, 10, 125, 145, 10, 78, 188, 55, 175, 9, 71, 190, 175, 14, 195, 30, 185, 94, 237, 32, 84, 86, 86, 198, 250, 12, 83, 157, 167, 218, 146, 126, 124, 216, 172, 78, 170, 155, 205, 212, 237, 64, 66, 79, 191, 68, 132, 21, 180, 79, 111, 189, 106, 35, 147, 60, 253, 18, 218, 12, 175, 209, 190, 245, 238, 16, 194, 228, 60, 207, 212, 229, 109, 201, 92, 89, 119, 93, 165, 41, 144, 107, 68, 162, 81, 218, 60, 68, 132, 141, 111, 95, 190, 246, 27, 142, 103, 134, 108, 185, 105, 181, 190, 68, 72, 236, 124, 209, 200, 166, 141, 152, 20, 184, 17, 23, 13, 35, 46, 244, 187, 0, 58, 23, 87, 212, 178, 65, 172, 251, 206, 243, 139, 55, 231, 23, 47, 26, 143, 159, 188, 121, 242, 232, 205, 147, 199, 78, 215, 140, 188, 184, 120, 83, 141, 122, 8, 57, 7, 20, 7, 101, 80, 255, 152, 141, 172, 116, 219, 22, 197, 135, 3, 209, 119, 86, 105, 49, 143, 167, 2, 144, 136, 138, 206, 176, 118, 238, 12, 89, 70, 34, 45, 47, 193, 108, 255, 230, 79, 91, 200, 196, 213, 167, 67, 186, 3, 85, 187, 58, 179, 119, 247, 8, 171, 172, 173, 255, 7, 254, 118, 212, 156, 18, 201, 223, 98, 247, 172, 146, 73, 136, 44, 63, 182, 28, 98, 245, 219, 206, 79, 158, 92, 252, 129, 191, 72, 81, 167, 12, 176, 140, 63, 187, 57, 82, 173, 48, 211, 197, 48, 58, 135, 129, 182, 177, 165, 96, 83, 193, 46, 216, 13, 237, 194, 56, 25, 30, 198, 148, 177, 8, 124, 96, 17, 19, 169, 100, 174, 6, 41, 157, 220, 77, 37, 254, 155, 84, 218, 186, 127, 245, 60, 247, 70, 221, 64, 232, 150, 21, 17, 116, 116, 57, 228, 225, 250, 124, 226, 58, 209, 114, 9, 204, 241, 207, 245, 122, 255, 11, 112, 240, 188, 139, 215, 64, 0, 0}}; } } } }